Language model created by QuickLM on Wed Mar 16 09:20:56 EDT 2016
Copyright (c) 1996-2010 Carnegie Mellon University and Alexander I. Rudnicky

The model is in standard ARPA format, designed by Doug Paul while he was at MITRE.

The code that was used to produce this language model is available in Open Source.
Please visit http://www.speech.cs.cmu.edu/tools/ for more information

The (fixed) discount mass is 0.5. The backoffs are computed using the ratio method.
This model based on a corpus of 16 sentences and 60 words

\data\
ngram 1=60
ngram 2=115
ngram 3=112

\1-grams:
-1.2730 </s> -0.3010
-1.2730 <s> -0.2772
-2.1761 AN -0.2726
-2.1761 AO -0.2772
-2.4771 B -0.2981
-2.1761 CH -0.2893
-2.1761 D -0.2878
-2.1761 E -0.2757
-2.4771 EI -0.2923
-1.8751 EN -0.2788
-2.4771 ENG -0.2923
-2.4771 F -0.2981
-2.4771 G -0.2996
-1.8751 H -0.2908
-1.5229 I -0.2537
-2.4771 IAN -0.2923
-2.4771 IANG -0.2772
-2.4771 IB -0.2996
-1.8751 IN -0.2878
-2.0000 ING -0.2632
-1.8751 J -0.2818
-2.0000 L -0.2848
-2.0000 M -0.2893
-2.4771 N -0.2878
-2.1761 O -0.2937
-2.4771 P -0.2996
-2.1761 Q -0.2833
-2.4771 R -0.2952
-2.4771 S -0.2996
-2.0000 SH -0.2908
-2.4771 T -0.2996
-1.6320 U -0.2569
-2.4771 UAN -0.2952
-2.4771 UI -0.2772
-2.4771 UO -0.2772
-1.8751 UX -0.2664
-2.0000 UXE -0.2617
-2.4771 UXN -0.2996
-1.7782 UXS -0.2908
-2.0000 W -0.2878
-1.6990 X -0.2742
-1.8751 Y -0.2772
-2.4771 Z -0.2908
-2.4771 ZH -0.2952
-2.4771 今天心情很好 -0.2952
-2.4771 你好 -0.2996
-2.4771 吃饭了 -0.2981
-2.4771 域名 -0.2937
-2.4771 培训班 -0.2996
-2.4771 我们一起约会吧 -0.2967
-2.4771 我的祖国 -0.2967
-2.4771 数学 -0.2967
-2.4771 梦想 -0.2967
-2.4771 物理 -0.2967
-2.4771 英语 -0.2952
-2.4771 计算机 -0.2952
-2.4771 认真学习 -0.2996
-2.4771 语音处理 -0.2937
-2.4771 语音技术 -0.2937
-2.4771 读书 -0.2981

\2-grams:
-1.5051 <s> 今天心情很好 0.0000
-1.5051 <s> 你好 0.0000
-1.5051 <s> 吃饭了 0.0000
-1.5051 <s> 域名 0.0000
-1.5051 <s> 培训班 0.0000
-1.5051 <s> 我们一起约会吧 0.0000
-1.5051 <s> 我的祖国 0.0000
-1.5051 <s> 数学 0.0000
-1.5051 <s> 梦想 0.0000
-1.5051 <s> 物理 0.0000
-1.5051 <s> 英语 0.0000
-1.5051 <s> 计算机 0.0000
-1.5051 <s> 认真学习 0.0000
-1.5051 <s> 语音处理 0.0000
-1.5051 <s> 语音技术 0.0000
-1.5051 <s> 读书 0.0000
-0.6021 AN </s> -0.3010
-0.6021 AN L -0.2218
-0.3010 AO </s> -0.3010
-0.3010 B AN -0.1761
-0.6021 CH IB 0.0000
-0.6021 CH U -0.2341
-0.6021 D E -0.1761
-0.6021 D U -0.2688
-0.6021 E </s> -0.3010
-0.6021 E Z 0.0000
-0.3010 EI X -0.2632
-0.9031 EN H -0.1761
-0.9031 EN X -0.2218
-0.9031 EN Y -0.2430
-0.9031 EN ZH 0.0000
-0.3010 ENG X -0.2632
-0.3010 F AN -0.1761
-0.3010 G UO 0.0000
-0.6021 H AO 0.0000
-0.9031 H EN -0.2430
-0.9031 H UI 0.0000
-0.6532 I </s> -0.3010
-1.2553 I H -0.1761
-1.2553 I Q -0.1761
-1.2553 I S 0.0000
-1.2553 I SH 0.0000
-1.2553 I UXS -0.2553
-0.3010 IAN X -0.2632
-0.3010 IANG </s> -0.3010
-0.3010 IB F 0.0000
-0.9031 IN CH -0.1761
-0.9031 IN J -0.0969
-0.9031 IN Q -0.1761
-0.9031 IN T 0.0000
-0.7782 ING </s> -0.3010
-0.7782 ING H -0.2430
-0.7782 ING UXS -0.0792
-0.4260 J I -0.1249
-0.9031 J IN -0.2430
-0.7782 L E -0.1761
-0.4771 L I -0.1919
-0.7782 M EN -0.2430
-0.7782 M ENG 0.0000
-0.7782 M ING -0.2218
-0.3010 N I -0.2762
-0.6021 O D -0.1761
-0.6021 O M -0.2218
-0.3010 P EI 0.0000
-0.6021 Q I -0.2762
-0.6021 Q ING -0.2218
-0.3010 R EN -0.2430
-0.3010 S UAN 0.0000
-0.3010 SH U -0.1963
-0.3010 T IAN 0.0000
-0.8451 U </s> -0.3010
-1.1461 U G 0.0000
-0.8451 U L -0.1249
-1.1461 U SH 0.0000
-1.1461 U X -0.2218
-0.3010 UAN J -0.0969
-0.3010 UI </s> -0.3010
-0.3010 UO </s> -0.3010
-0.9031 UX </s> -0.3010
-0.9031 UX M -0.2218
-0.6021 UX Y -0.1761
-0.7782 UXE </s> -0.3010
-0.7782 UXE H -0.2430
-0.7782 UXE X -0.2632
-0.3010 UXN B 0.0000
-0.3979 UXS UX 0.0000
-1.0000 UXS UXE -0.2218
-0.4771 W O 0.0000
-0.7782 W U -0.2341
-1.0792 X I -0.1919
-1.0792 X IANG 0.0000
-1.0792 X IN -0.2430
-0.7782 X UXE -0.1249
-1.0792 X UXN 0.0000
-0.9031 Y I -0.2762
-0.6021 Y IN -0.1761
-0.9031 Y ING -0.2218
-0.3010 Z U -0.2688
-0.3010 ZH EN -0.2430
-0.3010 今天心情很好 J -0.2430
-0.3010 你好 N 0.0000
-0.3010 吃饭了 CH -0.1761
-0.3010 域名 UXS -0.0792
-0.3010 培训班 P 0.0000
-0.3010 我们一起约会吧 W -0.1249
-0.3010 我的祖国 W -0.1249
-0.3010 数学 SH 0.0000
-0.3010 梦想 M -0.2218
-0.3010 物理 W -0.2218
-0.3010 英语 Y -0.2430
-0.3010 计算机 J -0.0969
-0.3010 认真学习 R 0.0000
-0.3010 语音处理 UXS -0.0792
-0.3010 语音技术 UXS -0.0792
-0.3010 读书 D -0.1761

\3-grams:
-0.3010 <s> 今天心情很好 J
-0.3010 <s> 你好 N
-0.3010 <s> 吃饭了 CH
-0.3010 <s> 域名 UXS
-0.3010 <s> 培训班 P
-0.3010 <s> 我们一起约会吧 W
-0.3010 <s> 我的祖国 W
-0.3010 <s> 数学 SH
-0.3010 <s> 梦想 M
-0.3010 <s> 物理 W
-0.3010 <s> 英语 Y
-0.3010 <s> 计算机 J
-0.3010 <s> 认真学习 R
-0.3010 <s> 语音处理 UXS
-0.3010 <s> 语音技术 UXS
-0.3010 <s> 读书 D
-0.3010 AN L E
-0.3010 B AN </s>
-0.3010 CH IB F
-0.3010 CH U L
-0.3010 D E Z
-0.3010 D U SH
-0.3010 E Z U
-0.3010 EI X UXN
-0.3010 EN H AO
-0.3010 EN X UXE
-0.3010 EN Y I
-0.3010 EN ZH EN
-0.3010 ENG X IANG
-0.3010 F AN L
-0.3010 G UO </s>
-0.3010 H AO </s>
-0.3010 H EN H
-0.3010 H UI </s>
-0.3010 I H AO
-0.3010 I Q I
-0.3010 I S UAN
-0.3010 I SH U
-0.3010 I UXS UXE
-0.3010 IAN X IN
-0.3010 IB F AN
-0.3010 IN CH U
-0.3010 IN J I
-0.3010 IN Q ING
-0.3010 IN T IAN
-0.3010 ING H EN
-0.3010 ING UXS UX
-0.7782 J I </s>
-0.7782 J I S
-0.7782 J I SH
-0.3010 J IN T
-0.3010 L E </s>
-0.3010 L I </s>
-0.3010 M EN Y
-0.3010 M ENG X
-0.3010 M ING </s>
-0.3010 N I H
-0.3010 O D E
-0.3010 O M EN
-0.3010 P EI X
-0.3010 Q I UXS
-0.3010 Q ING H
-0.3010 R EN ZH
-0.3010 S UAN J
-0.4771 SH U </s>
-0.7782 SH U X
-0.3010 T IAN X
-0.3010 U G UO
-0.3010 U L I
-0.3010 U SH U
-0.3010 U X UXE
-0.3010 UAN J I
-0.3010 UX M ING
-0.3010 UX Y IN
-0.3010 UXE H UI
-0.3010 UXE X I
-0.3010 UXN B AN
-0.9031 UXS UX </s>
-0.9031 UXS UX M
-0.6021 UXS UX Y
-0.3010 UXS UXE H
-0.6021 W O D
-0.6021 W O M
-0.3010 W U L
-0.3010 X I </s>
-0.3010 X IANG </s>
-0.3010 X IN Q
-0.6021 X UXE </s>
-0.6021 X UXE X
-0.3010 X UXN B
-0.3010 Y I Q
-0.6021 Y IN CH
-0.6021 Y IN J
-0.3010 Y ING UXS
-0.3010 Z U G
-0.3010 ZH EN X
-0.3010 今天心情很好 J IN
-0.3010 你好 N I
-0.3010 吃饭了 CH IB
-0.3010 域名 UXS UX
-0.3010 培训班 P EI
-0.3010 我们一起约会吧 W O
-0.3010 我的祖国 W O
-0.3010 数学 SH U
-0.3010 梦想 M ENG
-0.3010 物理 W U
-0.3010 英语 Y ING
-0.3010 计算机 J I
-0.3010 认真学习 R EN
-0.3010 语音处理 UXS UX
-0.3010 语音技术 UXS UX
-0.3010 读书 D U

\end\
